-0.364402 0.203802 0.200358 -0.0109942 0.0415484 0.201791 -1.19227 0.115363 -0.258228 -0.253204 0.212255 -0.409593 -0.492544 0.205022 -0.0310005 0.26241 0.187667 -0.089108 0.199157 0.195154 -0.167767 -0.430853 -1.00444 -0.368176 -0.0870543 -0.455913 -0.585974 0.747521 0.182412 0.041083 0.208388 0.178977 0.203598 -0.796494 0.129522 0.355659 0.210915 0.218817 -0.127149 0.193595 0.194047 0.37305 0.206012 0.206665 0.216937 0.206519 0.208572 0.214334 0.206691 0.289776 0.21036 -0.148968 0.296121 0.188833 -0.177117 -0.743716 0.216145 -0.269043 -0.360832 0.104105 -0.334542 -0.275453 0.0809093 -0.224041 0.186606 0.210927 -0.515848 0.36867 -0.0148403 0.251011 0.569987 0.221852 -0.462458 0.202848 0.203766 0.200808 0.212128 -0.394065 0.209569 -0.822097 2.44765 0.0685602 0.0386112 0.181285 -1.82972 0.121876 2.91599 1.00481 -0.379791 0.603755 0.0823347 1.38149 -1.36751 0.093073 2.61733 -0.0614154 -0.280219 0.612922 -0.0687439 -0.0450608 0.539411 3.02242 0.0602344 -0.372855 -1.52712 1.47047 1.47881 2.15878 -0.0539106 6.74992 0.0544368 -1.4186 0.0539227 -0.305921 -0.337908 -1.65673 0.0527107 0.0966771 -0.632061 0.0886474 0.469264 -0.944008 0.0802381 0.117316 -0.572832 0.102763 0.0482574 0.753162 0.0606854 5.46856 0.0809553 0.39386 -0.948296 -0.0387747 4.62234 -0.924415 0.0561914 2.6874 -0.329668 0.509492 2.88518 1.60648 1.09912 0.284561 1.23958 0.0525733 -0.547345 -0.0295237 0.149612 -0.413139 1.74219 0.0673064 1.12644 0.0384379 0.0988859 -0.00830663 0.100002 1.26431 0.0591878 -1.42357 -2.34247 0.0424912 0.0786549 -1.01179 0.930275 0.0751122 -0.00813361 -0.347114 5.46874 -4.45048 0.040946 -2.40534 2.2505 0.00837073 -1.41857 -0.812002 -0.103765 0.187342 0.0531962 0.0397067 1.68876 2.47778 1.74679 6.25728 3.35612 -1.11282 0.905749 0.235454 0.00173572 -0.587908 0.0375285 0.300125 0.0342744 1.39322 -1.07099 0.901229 0.0398593 0.0520385 1.54295 0.0411969 -0.359174 -2.57386 0.0772875 0.0206051 -0.141481 0.00530573 0.0932675 -0.593541 0.103203 0.123928 0.0824287 1.12995 -0.491634 0.0264421 -1.7198 2.12893 0.0640719 0.151733 -2.20989 -0.756643 -0.0957048 -2.69406 -1.43202 0.5072 -1.10336 0.038881 2.78665 1.78804 -1.64862 -4.21964 0.109659 0.0444417 1.39015 0.116833 0.0422818 -2.3465 0.00832776 -3.76181 0.121307 1.26999 0.917537 0.0307001 0.0536867 0.472136 1.76439 0.133365 1.52889 -0.683072 0.902519 -1.3928 0.0229317 0.425224 3.57727 0.104659 0.520799 -0.0426 0.0365445 0.7707 0.0753023 0.0750852 -2.20252 -1.07391 2.53937 0.967977 0.368108 -0.429729 0.679322 -2.22756 -0.0160671 -0.460318 0.0830964 -3.51403 0.0856732 1.20739 0.553939 -0.644047 0.0153174 0.0708282 -3.37676 0.146129 0.284423 0.417025 0.0871487 0.125424 0.0113461 0.0252252 0.011151 -0.422072 0.0296588 -1.07025 0.124794 0.33066 0.29113 0.0975103 0.0641236 2.44495 0.108098 -0.752201 0.487072 -0.669774 -0.781796 1.0244 0.549805 -1.50159 -2.08199 0.0710435 -0.69818 -4.48419 0.563202 0.292789 1.19156 0.109989 -4.13126 0.0378029 0.0601257 -1.10078 0.0721445 1.36866 0.0505056 1.60298 3.92955 0.0480901 0.109807 0.325641 0.701412 0.121541 0.253538 -1.90215 1.61016 -0.358566 0.00301293 -0.0155101 0.301757 0.0832192 -0.259244 -1.6565 0.0442767 -0.126567 0.00885374 0.118941 1.66264 0.426037 -0.245917 -1.49523 -3.79455 1.34792 -1.51621 -0.807703 0.0999473 0.938251 0.086559 -0.201716 0.0635189 -0.454885 0.0257272 3.20044 0.095923 0.0214862 1.77617 0.102858 -0.291012 -0.213927 0.0274555 0.105399 0.0973377 0.0700801 0.0853711 0.254083 0.00380711 1.79938 0.0341916 1.97388 -0.0255977 0.106066 2.52583 5.92896 0.0864822 -0.245248 3.68663 1.05454 0.00285365 -3.1107 0.187778 2.45686 2.1926 0.0193457 4.20199 2.00714 0.250209 -0.157974 1.76489 0.0257112 1.98325 0.00581828 0.106227 2.12533 0.112805 1.95082 0.0333043 -0.27151 -0.172539 0.0515991 0.0595183 -1.39192 3.86817 0.0157816 -1.70605 -0.0580133 -0.863815 -0.823622 0.0214069 -0.56215 0.926599 0.0496827 -2.43936 0.189229 0.0891268 -1.17895 0.0284124 0.109565 -1.43151 -0.97383 2.84087 0.247442 1.68644 -1.83071 -2.67744 0.0666981 0.0958757 -1.11255 0.125372 -2.42348 0.018733 1.46264 0.162884 -0.123951 0.016527 0.0198233 -0.16883 0.0965005 -0.0799968 0.28837 0.0772834 0.044479 -0.0044701 0.10041 0.0940039 -0.139311 0.0656348 0.197819 0.026776 -2.38354 0.162833 0.113842 -1.1658 0.295023 0.0948635 -1.01225 -0.344759 -1.64504 -0.960441 -1.20027 -0.797833 0.9616 0.293269 0.0830019 3.8195 -0.770333 -0.81947 1.73567 1.24921 0.0443062 2.60866 0.0358293 0.106784 -2.548 0.089771 2.04268 0.0823376 -0.0863149 0.49404 0.11048 0.0207798 0.269888 -0.622485 0.143608 0.704027 1.27397 -0.422131 0.223185 0.11428 1.40912 -1.37074 0.0905302 -0.377816 0.711817 0.0345316 0.790664 0.0107436 0.083566 -1.24333 1.35564 1.87742 -0.163294 1.65515 1.71792 1.63956 -1.17782 0.0403945 -0.131131 0.0362304 0.534218 0.0864768 0.28701 -0.420386 -0.0152709 0.0573557 0.137927 1.84785 0.0239971 -0.427546 -0.171266 0.0585853 0.104435 -0.0334086 0.0767943 0.0829959 -0.289547 0.108607 -3.06166 0.0582521 0.643239 0.291639 0.117141 -1.43538 -0.560602 0.0777306 3.20988 1.25832 0.263578 1.90288 2.34111 -0.0924262 2.58994 -1.02202 0.0387504 0.69928 1.33055 -0.30412 0.308467 -4.69251 0.0569673 -0.367828 0.114886 0.0574589 0.212306 0.0231209 0.070983 0.060523 1.21331 2.58301 0.131134 0.139339 0.853092 0.667198 0.0924132 0.524713 -1.33542 -2.6708 5.43628 0.104992 1.74406 0.851201 0.11468 -4.22656 -1.48834 0.0748471 0.519531 0.0495116 0.0824088 4.7203 -2.88337 2.39097 0.707932 -4.02486 2.54744 4.21613 -1.00316 0.139871 -2.10435 0.0946433 3.98593 0.13343 5.96128 0.572913 -0.841052 0.0867464 0.0258987 3.38312 0.139132 -0.750321 -1.881 0.115496 0.11066 0.176806 0.117964 0.0879306 -0.900913 0.115279 0.0883656 0.127623 1.43238 0.341037 0.11101 2.42913 3.58779 0.0188041 -0.682594 2.31873 -0.20927 1.80595 0.830436 -0.622137 -2.2373 1.67564 0.0787534 -1.11139 -0.955301 1.40285 -0.827267 1.77786 0.0274277 5.91832 0.10819 0.138962 0.484848 0.0952142 3.10887 0.100831 5.16518 1.2186 -0.103312 -0.407354 -0.257787 0.0287014 0.121821 -1.06633 0.772615 -0.274302 -0.0296527 -0.0735793 0.0535296 0.00799412 -0.0174277 -0.132061 -0.0305072 -0.280077 -0.039137 -0.0609893 0.0588924 0.018964 -0.0143219 -0.144499 -0.0263486 0.577173 0.0891547 0.000241341 -0.0483741 -0.00739689 -0.198823 -0.147734 -0.136036 0.223966 -0.345021 0.857772 0.918447 -0.0825725 0.10758 -0.522287 0.0590335 -0.264778 -0.0359235 -0.0760904 0.0467134 0.0111535 -0.0194491 -0.113775 -0.0415997 0.249805 0.0773962 -1.14793 0.180695 -0.0395373 -0.300466 -0.526285 1.56808 0.156765 0.259579 -0.0918797 -0.262363 -0.301198 -0.435408 0.819262 -0.499399 -0.841419 0.955935 0.823049 -1.91455 0.751773 -0.287868 0.647022 -0.373688 -0.331778 -0.260988 -0.21915 0.00422077 -1.07127 1.31601 0.104282 -1.54415 -0.292039 -0.0295726 -0.067504 0.0448113 0.0111048 -0.0173597 -0.141115 -0.029219 0.331869 0.0117754 -0.27044 -0.745584 0.208619 -0.188772 0.619786 -0.250875 -0.70782 -0.202323 0.0883193 -0.23132 -0.0261165 -0.694297 -0.225106 1.85778 -0.259626 -0.0315207 -0.0759017 0.0621821 0.0152099 -0.0260768 -0.125335 -0.0471256 -1.52833 1.53747 -0.727707 0.0496426 -0.722972 -0.00717158 -0.0844826 -0.360051 0.42881 0.0121428 -0.0443072 -0.761397 -0.0785892 0.140062 0.590196 -0.274058 -0.283054 -0.0434313 -0.0693072 0.0733678 0.0351312 0.0346764 -0.212404 -0.00347377 0.369091 -0.297715 0.15181 0.0228057 -0.563296 -0.385178 0.173287 0.11955 -0.256063 -0.0304026 -0.0814644 0.0635345 0.0256155 -0.00309636 -0.152711 -0.0327218 -0.28903 -0.0377098 -0.0678156 0.0486264 0.0148917 -0.0161625 -0.15557 -0.0258038 -0.104966 -0.173444 1.18594 0.569406 0.308646 -0.783468 -0.268202 0.268409 0.0317409 -0.997233 -0.0603036 0.491943 0.616276 -0.348343 -0.354501 1.45678 0.153218 -0.445408 1.47299 0.142264 -0.840007 0.424873 0.109796 -1.54036 0.763156 0.219445 -0.683595 -0.395529 -0.279115 0.0783601 -0.0616539 1.23538 -1.22651 0.135768 -0.772783 -1.22493 0.837255 0.470457 0.559236 -0.473619 0.535081 0.772234 -0.294873 -0.51135 0.35833 -0.325426 -0.215462 -0.339563 0.328424 0.621271 0.506211 -0.531 -0.796441 -0.605634 0.164341 0.751765 0.00608287 -0.562632 -1.03369 -0.362483 -0.122574 0.602053 0.955278 0.34971 -0.285258 -0.0318568 -0.0636975 0.0573206 0.0120507 0.00218634 -0.165696 -0.0184987 -0.809959 1.33635 0.520041 1.1731 -1.03854 0.075329 -0.648731 0.102925 -0.293015 -0.0303463 -0.0671829 0.0546338 0.0102342 -0.0208098 -0.142814 -0.0207723 -1.30274 -0.720133 0.459004 0.590637 0.212854 0.0748956 0.276621 -0.271402 -0.2853 -0.0346211 -0.0683663 0.052085 0.0136645 -0.0222801 -0.140632 -0.0236517 -0.547128 0.659335 -0.346599 1.74454 -0.46849 -0.855941 -0.152511 -0.119634 0.37254 -0.102802 -0.0526882 0.228511 0.153958 -0.00964757 -0.0657342 -0.129275 0.883361 -0.551526 0.398374 -0.641048 -0.133451 0.0411042 -0.277096 0.339241 -0.289777 -0.0348261 -0.0583008 0.0532679 0.00974809 -0.0115014 -0.137211 -0.0275572 -0.281126 -0.0340242 -0.0786405 0.0456848 0.0111517 -0.0231711 -0.130079 -0.028472 -1.15686 0.342699 -0.138197 -0.846974 0.859865 -0.553011 0.0312293 0.977859 -0.213331 -0.0445368 -0.072663 0.0792604 0.00150387 -0.0181695 -0.116096 -0.0758738 0.598433 -0.199762 -0.336288 -0.0241226 -0.138686 -0.258685 0.351195 -0.189944 0.562252 0.320612 0.238115 0.180476 -0.0956819 -0.464055 0.265015 -0.667476 -0.262749 -0.0301848 -0.0787233 0.0601746 0.00885962 -0.0216149 -0.134421 -0.0420174 -0.271817 -0.0327299 -0.0739702 0.0579769 0.0117512 -0.0278097 -0.11872 -0.0421479 -0.257866 -0.191503 -0.0642151 0.227367 0.102248 0.0508222 -0.213506 0.0324716 -0.25077 -0.0251842 -0.0835589 0.0598489 0.00779832 -0.0180365 -0.127439 -0.0431442 -0.274418 -0.0294312 -0.0696812 0.0514288 0.0135901 -0.0231416 -0.13422 -0.0294305 0.517563 0.0387581 -0.332152 0.157111 0.0170336 -0.433732 -0.0186184 -0.0612686 -0.286203 -0.0290922 -0.0676989 0.0545416 0.012598 -0.0192394 -0.138319 -0.0320842 -0.681952 1.12105 0.237042 -0.245482 0.664215 0.490814 -0.961941 0.577763 -0.290118 -0.037263 -0.0668538 0.0506596 0.0171589 -0.0251198 -0.136566 -0.0330962 0.411519 0.352321 -0.318935 0.100109 -0.180374 -1.01933 0.404538 0.305312 -0.27111 -0.132778 -0.0583318 0.199392 0.0968866 0.326664 -0.448257 0.0411833 -0.278334 -0.0400351 -0.074474 0.0533004 0.0161378 -0.014928 -0.151315 -0.0254216 -0.0258389 -1.03026 -0.128846 -0.61552 -0.16843 0.443889 1.09784 -0.586961 -0.431192 -0.788834 1.95213 -1.01641 -0.780365 0.387156 0.344514 -0.407774 -0.282054 -0.0385471 -0.0672872 0.0513306 0.0107086 -0.022823 -0.127663 -0.0246241 -0.480292 0.349476 0.158138 -0.59735 -0.567052 0.208438 1.41112 -0.396094 0.376546 -0.0559842 -0.515255 0.518856 -0.180058 0.410986 -0.274218 0.793946 0.597018 0.0441213 -0.396741 0.183599 0.207374 -0.29327 -0.342243 -0.0270026 0.601854 -0.466295 0.111902 -0.257794 -0.0932409 0.316978 0.734378 -0.883055 -0.684484 -0.280249 -0.118116 0.15163 0.0493072 1.11991 -0.554008 -0.0800492 0.548519 -0.48774 -0.463582 -0.123187 -0.0851834 0.255491 0.00158663 -0.116936 0.261358 -0.494041 0.553076 0.484521 0.432608 -0.502806 -0.161367 0.32854 0.602231 0.611271 -0.121132 -0.49488 -0.705252 0.135862 0.342737 0.48525 -0.285182 -0.0323318 -0.0636222 0.055355 0.0118189 -0.0169025 -0.144807 -0.0238419 -0.0691569 -1.1184 -1.87575 0.282323 -0.332069 0.984425 -0.0277987 -0.0956529 1.04102 -0.48173 0.284666 0.26186 -0.856804 0.516693 -0.571458 0.226997 0.460628 -0.187956 0.145814 -0.0960626 0.158944 -0.148514 0.0752342 0.0705857 0.234132 0.690401 0.569259 -0.701239 0.65905 -0.811295 0.209787 -0.375697 1.06545 -0.827803 -0.0702414 -0.806978 -0.0178954 0.40374 0.831602 -1.11605 -0.275745 -0.0376957 -0.0732491 0.0537289 0.0128676 -0.0268793 -0.12587 -0.0355189 1.24963 0.829755 0.0173417 -0.689899 -1.16572 0.00773148 0.248893 -0.220714 -0.270661 -0.0268517 -0.0666124 0.056312 0.0191228 -0.0210869 -0.140811 -0.0314742 -0.26726 -0.0380258 -0.0661973 0.0573478 0.00610715 -0.0177007 -0.131715 -0.0349022 0.661484 -0.0270833 -0.560935 -0.39985 0.459201 -0.232529 0.560402 -0.0378832 -0.274398 -0.0372632 -0.0665275 0.0586416 0.0108474 -0.0147189 -0.13113 -0.0259575 -0.805443 -0.745839 -0.189135 0.495372 1.03295 -0.36189 0.253083 -1.15848 -0.279764 -0.0392552 -0.0688712 0.0525068 0.00768397 -0.0172418 -0.137686 -0.0368846 -1.1382 0.741518 -0.544496 -0.150722 0.640349 0.170057 0.210219 -0.917949 