0.0152647 -1.46247 -1.16352 -0.141269 0.333067 0.163109 0.32299 0.762606 0.946648 0.249787 -0.415584 -0.433329 -0.564224 0.341128 0.487029 1.50561 -0.34609 0.281463 0.554848 -0.21703 -0.506913 0.261783 0.242852 0.135211 -0.812349 0.670187 -0.741613 0.352977 -0.368311 -1.19406 1.04028 0.845891 -0.308619 -0.312225 1.222 1.72306 -0.0466929 0.437598 -0.325247 -0.289414 0.322525 0.0306249 0.066938 0.276759 -0.693062 -0.174633 -0.439239 -0.765112 -0.629742 -0.387646 0.305033 0.26819 0.286378 -0.489737 -0.773776 -1.07264 0.148565 -0.387433 0.103299 0.288906 -1.12743 0.309372 -0.328614 -0.975359 0.281876 1.14714 0.99451 0.919114 0.101014 -0.0596188 -0.416556 -0.15555 0.226261 -0.942172 -0.36925 -0.581476 -0.572168 0.813119 -0.919295 -0.293723 -0.0909854 -0.884954 0.188169 1.23194 -0.589316 -1.18163 -0.169537 0.351568 0.0688639 -0.254889 0.0482498 0.233122 -0.603987 -0.306911 0.00200782 -1.07728 -1.52659 0.431449 -0.220833 0.2847 0.397722 -0.415256 0.28273 -0.429926 0.135632 0.00542234 -1.3587 0.210764 0.664097 0.580469 -1.60335 -0.733909 0.0775699 -0.657819 -1.39844 0.448739 1.45734 0.619256 -0.120989 0.0419963 1.5369 3.55632 -1.70357 -0.0868618 -0.421041 0.78914 2.57897 -4.47738 0.607353 -0.00337287 -2.92184 -0.395811 2.17523 -2.62093 2.13894 2.16927 2.90213 0.125098 -2.17145 1.59804 1.61369 0.217147 0.351071 -1.9743 -2.86391 -0.289494 1.11092 -0.195423 -4.19257 1.15858 -6.00526 -2.66796 2.71607 -0.955025 -0.453122 -5.50263 -1.16691 -1.2881 5.51354 0.167589 -6.90884 0.517394 1.23093 0.124184 2.05649 2.97127 -2.53499 0.169717 1.81733 -1.82552 0.0420469 0.0199152 0.0994681 -8.20194 0.765176 2.71696 0.86199 1.68577 3.51248 0.107073 1.83227 -3.72014 0.466824 3.27839 -3.50855 -6.44715 1.47383 -0.551548 1.27265 0.845807 2.21703 2.07796 0.0756277 -0.650764 0.0496677 -1.61257 1.01919 1.55841 -1.20753 1.48497 1.35456 3.82903 -1.13078 2.3708 1.03832 1.47311 1.03541 2.35688 1.26177 3.35677 1.09704 3.43118 -2.95048 3.0174 1.12271 -0.0862972 1.36934 2.94493 -0.329469 0.130802 0.424205 1.17898 0.103835 2.11821 -0.0444987 0.307701 0.876797 -5.43689 -1.90937 -1.83809 -0.260488 -1.76866 4.12667 -2.37953 1.87386 -2.61897 2.3399 -1.83322 5.07797 0.586455 0.689346 -3.91184 6.75448 -2.43224 -0.853601 0.187933 -0.282172 2.29936 0.32629 0.250515 5.79528 -1.20992 1.46357 -0.611757 -0.0645405 2.00077 -0.479433 0.0801757 -2.00391 0.13747 1.05943 0.292852 -0.373484 1.72623 -0.0153914 -0.721121 -2.16491 0.00150724 -1.53947 1.79761 -0.428921 0.247648 2.1971 0.894066 3.72371 1.57703 4.10874 2.27136 -1.42669 0.353052 -1.94595 2.28752 1.95349 0.0938826 3.85986 3.14777 4.31502 -0.703565 6.38824 -2.64564 0.0258877 0.226746 0.0981081 -0.645404 0.736291 0.177748 1.47403 0.646798 -3.87495 0.0264139 -1.56289 -0.517104 1.75573 2.40182 2.50141 -4.34763 -3.15073 0.816469 -4.29275 -2.17467 3.21105 1.28411 0.46705 -1.84452 -1.00775 1.24594 7.4594 0.432141 4.75628 3.25945 -0.988102 -0.180398 -2.22899 -0.541755 -0.699564 6.17174 -5.20209 -0.964005 -1.14421 0.385104 0.426999 2.04444 0.583196 -0.330754 2.5809 3.17354 0.856433 3.12042 -2.24065 0.0716546 -1.79971 3.14187 0.0767482 0.885881 0.546268 -1.26741 2.56978 0.355629 1.69703 0.126637 3.82688 -0.76155 -0.5539 -1.42502 -1.29161 -1.13389 -0.652014 -0.591247 -2.69763 -3.01408 -1.32954 4.24945 1.03148 -0.0794049 -0.360965 1.42035 -0.358742 -4.12308 4.15345 0.149539 2.15109 1.08281 0.704723 4.49542 -3.43285 -0.683043 -0.0801789 0.0529914 0.959957 0.219856 3.622 -0.0849482 -1.40566 2.56047 0.0630409 2.67744 -2.46361 0.253305 0.880299 2.10186 -0.5666 1.27684 -2.90576 -1.19394 -3.42194 0.395498 -3.80688 -1.35136 1.02705 4.75493 -0.506715 -0.952311 -3.79315 0.0831088 0.648288 1.09664 7.44674 -0.534168 -2.44869 2.42059 0.116949 0.0941665 0.0754967 1.09251 2.7791 7.10234 -5.0055 0.292429 -4.4605 0.0654532 5.77777 3.31632 0.306729 1.7578 -6.41584 1.73483 -4.67935 -0.528256 2.09682 2.02985 2.38391 2.49887 0.117558 -0.463457 3.51596 3.72984 0.54161 0.749031 1.82142 1.47098 0.955107 -0.840099 3.017 0.277711 0.304371 -0.778617 -4.69693 4.75207 0.822921 -0.989091 3.04829 -1.1908 4.46326 1.05101 -1.91564 1.45626 7.10742 -2.65672 3.19835 0.0625487 3.25038 -0.599357 0.119512 -0.232727 -0.255612 1.34365 0.681885 3.18555 1.24409 0.593077 2.64768 0.55245 -3.63742 3.61395 0.310011 3.91028 -2.25138 -0.682753 -0.495059 -0.112154 1.44192 -1.05206 -1.87878 -1.10776 -1.06556 2.68297 0.374445 1.26433 -2.59033 0.0679123 3.98163 0.395612 -0.0542152 -0.329586 -0.00116075 -0.295184 3.58295 0.105264 -0.066382 0.228482 -2.04852 0.040921 -1.70987 -2.68964 0.498914 -0.789796 -1.85862 0.00935694 -1.35469 -0.795339 1.73243 2.61932 2.74156 1.53988 2.23438 -1.34945 -2.49887 -2.14868 3.03089 0.312521 -0.279655 0.767093 1.53348 0.0839378 2.48032 -0.321112 1.82854 1.68967 -3.30514 -4.47783 -0.0613228 0.0161463 0.0611695 5.2729 2.55897 2.38946 3.75216 0.885385 -0.991505 0.0535184 3.09295 2.9334 0.664897 4.44228 0.830446 1.39624 -1.38686 0.607641 -3.59083 -1.82995 1.27536 -0.922318 0.0167732 -1.70061 -0.694329 1.34938 3.10885 -0.379377 4.31769 -3.70529 1.38353 -0.705932 2.51388 -0.0245336 -0.0691746 4.05564 2.54034 2.17208 -2.13361 -1.28164 1.94475 -2.7015 -2.54089 0.0840672 3.19351 1.62473 -2.20058 4.9063 -1.30295 0.0511417 -1.40229 3.21565 0.025219 1.09825 -0.552368 -1.95514 3.21926 0.473763 -4.10716 -0.293994 2.04361 -1.16347 -1.43467 3.86773 0.273562 1.17371 1.06598 0.163343 0.0539271 -0.0412624 -1.28678 -0.59744 -0.903162 14.6681 -0.486368 6.40563 1.29501 0.676612 -0.303149 0.269804 -1.03754 4.27356 4.37583 -3.52298 -3.34328 -5.35466 -0.724709 0.0943825 -0.0535184 -1.01678 -1.15055 0.301063 1.31306 2.00085 5.41334 -1.00054 0.190094 -0.333535 5.97298 5.82702 -4.77214 2.26165 -1.17207 -0.304078 1.6979 0.245691 4.39049 6.55239 -1.51741 5.07477 5.40963 -0.0873838 -2.16088 0.100921 1.11737 3.68829 2.08273 -3.06933 -1.59115 8.75395 -0.0204273 0.278201 0.083576 -0.456993 1.86874 -0.914915 4.4866 -0.177158 -2.23027 0.052823 -2.66725 2.98653 6.96838 6.93469 3.65737 0.503491 -0.410737 2.72434 5.52011 -1.9132 1.30743 1.203 0.29154 -3.0903 4.77642 -3.55943 3.24534 0.0490788 3.86879 7.62474 -3.55368 6.62561 3.4228 -2.14736 -1.29079 5.38714 -5.31954 -3.52459 -0.100094 -1.07382 -1.05746 3.2762 0.105791 -2.04796 -3.89679 -0.617584 1.38577 -1.11044 -0.900782 0.0796333 -0.850738 3.39331 0.0894181 1.11461 4.68343 -2.10229 1.74761 1.92532 -1.02882 -0.0285124 8.86775 -1.93763 4.36512 2.57644 -2.08013 1.63039 -0.0255789 1.5339 1.14803 -0.615643 -0.861339 -0.0490704 -1.21227 -2.9132 -0.598598 -4.65258 1.21347 0.416976 1.54434 0.055068 -1.33393 -0.282144 1.16296 -0.795602 0.446974 -0.275372 0.452201 0.0156225 -0.226965 0.352061 -1.47817 0.144445 0.127609 1.70981 -0.882662 0.450853 -3.93408 0.123803 -1.01712 -0.9229 1.24858 -0.924218 -1.72421 1.92283 -0.196617 1.47641 -2.58958 0.140109 0.0544372 0.444101 0.726119 -0.916114 -1.56269 0.0524898 -1.87108 4.36051 -0.392226 -4.54951 2.17286 2.54063 0.134559 0.099424 0.0604139 -0.853767 0.384747 4.49592 -1.92757 1.15399 -3.34388 0.0329113 0.752713 -0.116091 -0.672021 -0.733134 -0.159328 3.02249 -0.553168 -0.657734 0.623382 2.19076 1.50411 0.145797 0.19331 1.13471 1.37857 1.49276 -2.2005 1.3698 -0.255694 1.22737 -1.08638 4.72017 1.13341 -0.172172 0.0346315 -0.316909 -0.825024 -0.428145 1.26309 -3.02339 -1.13719 1.98678 6.29171 -1.45662 0.415972 -3.89841 0.339877 -2.26971 -0.4091 0.0235177 -2.87425 -0.635871 0.0849025 -0.972213 0.512933 -1.72541 -3.08106 1.83606 -0.291907 0.101268 -1.42269 -1.32707 -0.0304408 0.694285 0.640495 -1.9913 -2.77269 0.1213 0.915115 0.993236 2.15203 3.85373 5.33557 -0.153183 1.06623 -0.978727 -2.31798 -1.93908 -3.9285 -0.0241267 1.72232 0.876964 1.14231 -2.90129 0.370569 -6.86212 1.12253 0.130661 1.59904 4.08182 1.95615 0.249152 0.625159 -2.7203 -0.624163 -1.14887 0.839296 -0.0475384 5.30077 1.47729 -0.999357 -1.16631 1.03684 -2.08942 -3.33573 -4.59669 -1.44864 -0.378391 -0.958286 -0.065449 -0.0119885 0.602422 -1.69287 0.130844 -0.666931 -2.45125 -2.5204 2.65901 0.810206 2.43669 0.0832839 0.102685 0.0951687 4.83934 5.4679 -0.570957 1.69357 3.96572 -0.975555 0.136125 0.913211 -0.252813 1.10496 -3.50338 1.47183 1.97664 -0.873319 -2.85228 2.45414 -0.893448 0.617222 -4.15821 0.258572 9.26785 2.5197 -1.27622 0.334096 -2.54486 0.546603 -0.284751 4.48018 2.21626 -0.712053 -3.19824 0.650868 1.05319 0.298136 -2.06119 -0.817829 3.93995 -2.73494 -1.5854 -0.702309 -0.342865 2.70669 1.82926 0.0118594 -3.9471 -1.19998 0.11095 -3.95856 0.385706 0.0877953 4.05582 0.421897 -1.05634 3.30866 1.24546 -4.62846 -1.25979 5.34159 1.15777 1.24893 3.80841 2.68966 -2.67487 -2.52126 0.258201 -2.56982 0.343496 -1.16737 0.95762 -1.26112 -0.759657 -1.04135 -1.993 3.20085 4.40399 -2.02232 0.290467 -0.245127 7.06756 1.28765 7.02087 2.99083 3.48536 -5.81775 0.0852417 -0.73369 -2.15029 3.81384 -0.254567 0.883846 4.02233 5.42218 0.78629 9.12517 -0.0162228 3.11103 7.69023 -4.26763 -2.34044 3.37895 4.49023 0.657161 2.38022 5.92756 -0.755786 2.70312 -1.99762 1.58978 0.0993325 3.35631 0.0950787 1.72001 0.32969 2.14745 5.84907 0.434809 1.55357 -0.184861 0.0358077 0.0867018 -1.14108 -1.34032 1.40397 0.4932 -1.99049 4.99681 0.0946359 4.11695 0.725286 -2.4345 4.28846 4.44271 -0.977852 0.690708 0.820161 -8.49423 3.13792 -0.916851 0.687523 -0.0477383 3.27483 -5.0069 5.7962 -2.06891 -2.35059 3.61573 -3.16984 -4.6668 0.646188 -2.0636 -2.1219 -0.253127 2.85306 8.40159 -3.25465 1.86578 0.915687 -0.795963 -0.640468 1.71073 -0.117931 -2.58382 4.22739 1.35074 1.67919 -0.0217341 0.109975 5.1672 2.71482 0.108533 -0.192407 -0.558527 1.10031 5.46416 -1.3105 5.05429 2.85761 0.580937 9.55339 2.14818 1.79676 2.12608 -3.70007 -2.15469 0.636396 2.98176 2.4052 -0.0265578 -0.561262 -0.363123 -0.273103 0.157131 0.085723 0.546288 0.167261 -1.1571 0.0732778 0.643495 -0.7244 0.586564 0.189636 0.223562 -0.0203721 1.4644 -0.331575 -0.499982 -0.147039 -0.113122 0.0574373 -0.43922 -0.0225355 1.63061 -0.999164 -1.44362 0.173725 0.231572 -1.0876 0.605912 -0.573131 -0.276391 -0.34323 0.0394024 -0.218954 -0.261778 0.312324 0.458823 -0.370813 -0.32701 0.31647 -0.614265 1.02049 -0.808484 -0.569038 -0.387667 0.42018 0.247413 -0.321828 0.0809824 1.25956 -0.217399 -0.104199 -0.651596 -0.465666 -0.610467 -0.656087 -0.78994 -0.840218 0.622708 0.585907 0.42268 0.232977 -1.07453 1.38903 -0.179443 -0.952374 1.18429 0.656468 -0.391612 -0.0544994 -0.175964 -0.025109 0.182333 -0.122797 -0.252817 0.0516086 -0.346634 -0.0383492 -0.44526 0.074316 -0.872778 0.390439 0.325191 -0.278914 -0.305093 0.451301 -0.212171 0.0354553 -0.455856 0.631978 0.0190891 -0.564815 0.308689 -0.816768 -0.0287752 0.630969 -0.0211683 -0.444053 -0.320435 -0.188567 -0.163723 -0.0647076 -0.0895229 0.536557 1.04049 -0.0614001 -1.45038 0.573954 0.445088 0.589764 -0.408812 -0.483439 -1.1523 0.332622 0.588031 0.359559 0.367481 0.308503 -0.650866 -1.65534 0.217205 0.328009 -0.707553 0.779535 1.02175 0.664525 0.403847 0.219111 0.0933745 -0.203237 -0.287394 -0.769494 -0.116594 0.415235 -0.360991 0.0317163 0.232804 -0.229062 -0.21285 0.0761802 -0.397276 0.0373527 0.388574 -0.0645913 -0.865022 -0.513846 0.170795 0.0545193 0.568258 0.0155937 0.255291 0.115463 0.098132 0.194236 0.0889697 -0.295403 0.303116 -0.965313 -1.06148 0.544956 0.875174 -0.486152 0.265357 -0.731977 0.472741 0.272699 -0.264126 0.0175391 0.156223 -0.190301 -0.271175 0.0672827 -0.371422 0.0628412 0.239725 0.105518 0.00109357 0.219891 -0.207783 0.157863 -0.130911 -0.930161 -0.380296 0.706215 -0.389499 -0.119658 0.0911368 -0.555167 -0.00401244 0.026683 0.0916993 1.2196 -0.121496 -1.20615 -0.845129 0.2362 0.0880281 0.351366 0.0924844 -0.329224 0.0900544 -0.0979697 -0.232776 0.0390296 0.1329 0.0462547 0.756166 -0.0842189 -0.0253381 0.877372 -1.49108 -0.663334 -0.0283857 -0.470901 -0.125058 -0.0559495 0.0874185 -0.149442 -0.262912 0.047915 -0.350921 -0.00198637 0.970082 -0.448242 0.287658 -0.295329 -0.568873 0.993086 -0.419637 0.754359 -0.0620255 0.09807 0.458117 -1.25461 -0.229683 0.448473 0.0997149 0.558217 0.582009 -1.02276 -0.215724 -0.4438 0.790789 1.01852 0.14338 -0.0655073 0.164734 0.282175 -0.280091 0.437797 0.852214 0.0521881 -0.175217 -0.89395 0.22505 -0.878927 0.341574 -0.351489 0.198502 0.113812 0.261779 0.300954 0.20499 -0.459454 0.889697 0.444457 -0.678091 0.0784197 -0.357746 -0.69218 0.815455 0.128776 -0.370431 -0.38463 -0.259085 0.47425 1.11493 -1.8915 1.005 -0.473009 -0.119596 -0.146304 1.44103 -0.275337 -0.989283 0.388138 -0.511624 1.094 0.108866 0.506293 -1.46413 -0.425042 -0.175906 0.529894 0.00879276 -0.218986 -0.432686 0.122214 0.563014 -1.39714 0.0932995 -0.86541 -0.294253 -0.291526 0.177625 -0.112261 0.242255 0.684596 -0.180776 0.576521 1.08143 -0.225216 -0.223953 -0.172714 -0.109503 -0.0164203 -0.576137 0.0231465 -0.00570791 0.783731 0.0143001 0.691204 -0.377623 -1.12095 -0.826408 0.551044 -0.393357 -0.478655 -0.176329 -0.26283 0.0307998 0.13513 0.365452 0.0296141 -0.607862 -0.0733058 -0.0313823 -0.544612 0.502934 -0.0628998 -0.130861 0.294294 -0.366991 0.0296338 0.241122 -0.232996 -0.206588 0.0692925 -0.404214 0.0428742 -0.396826 0.0624256 -0.67314 0.182392 0.229489 -0.101508 0.0989767 0.423337 1.14233 1.02271 -0.288854 0.152148 -0.21979 -1.08404 0.0345791 -0.627402 0.832952 -0.423217 1.38135 -0.142532 -0.351348 -0.4141 0.0071193 -0.376189 0.284151 -0.411122 0.130839 -0.208527 0.132642 0.409013 0.378176 -1.29082 0.811832 -0.0252741 -0.142022 0.2192 -1.51942 -0.118866 -0.175839 0.612244 0.892048 -0.272362 -0.556892 0.0231083 0.794009 -0.195301 0.0493837 -0.789873 -0.258666 -0.000419442 0.119201 -0.195906 -0.219257 0.152706 -0.3434 -0.0470852 -0.220328 0.000258208 0.173433 -0.171691 -0.25574 0.0304786 -0.371068 0.0125063 -0.363411 0.029433 0.235257 -0.231801 -0.209961 0.0833865 -0.393353 0.0390023 -0.737692 -0.13938 -0.49541 0.249806 -0.71637 0.423314 0.934985 -0.123123 0.20663 1.36735 0.382418 -0.0419409 -1.24387 -0.660559 -0.562685 0.255379 -0.0697722 -0.949245 0.304447 0.346641 0.65769 0.683126 0.144833 -1.04352 0.319133 0.384686 0.214321 0.552979 -0.461978 0.99167 0.0426261 -0.957768 0.335002 0.0760785 0.229624 0.283386 -0.359135 -0.204642 0.423094 -1.04669 0.423353 -0.575927 0.394985 -0.376671 0.290338 -0.15608 -0.432929 0.586056 -0.365315 0.0342376 0.237699 -0.234647 -0.210937 0.0763446 -0.403606 0.0422568 -0.583598 0.579393 -0.0277257 -0.161102 0.765721 0.443322 -0.00875936 -0.71432 0.85577 -1.07688 -0.76762 0.468571 0.218401 0.577038 0.118675 -0.19046 0.175782 -0.117718 -0.259224 0.345033 0.279428 -0.545622 -0.000150697 0.336872 0.829114 -1.29604 -1.00357 0.854385 0.357775 -0.213684 -0.233503 -0.0503435 -0.310806 -0.805945 0.0187996 0.448362 0.918403 -1.74244 -0.132959 0.301805 -1.60327 -1.06494 1.04482 0.988848 -0.0367056 0.320107 0.152702 -0.152758 -0.375333 1.12992 -0.807478 -0.0840275 0.696855 0.183574 -0.2435 -0.466188 0.280493 0.0615881 0.451074 0.668736 -1.10206 0.0696975 -0.119935 -0.794119 -0.991003 1.3715 -1.45773 0.0255134 0.11266 0.00999661 0.36799 0.702517 0.295634 -0.240835 -0.589549 0.494407 0.0930566 0.383248 -0.0867073 -0.242943 -0.130212 0.40601 -0.113553 0.233073 -1.09013 -0.273729 0.330476 0.282461 -0.0100723 -0.568016 0.654473 0.309003 0.0275741 -0.168289 0.357334 -0.650354 -0.234713 -0.0021552 0.17677 -0.18357 -0.26942 0.028938 -0.363324 0.0351254 -0.0592858 -0.207081 -0.461404 -0.885631 -0.183876 -0.35158 1.25053 -0.470454 -0.313481 -0.214966 -0.548226 -0.062087 0.782579 -0.724842 0.0588124 1.02187 -0.933896 -0.13138 -0.452699 -0.813373 0.156866 0.226752 0.120219 0.851735 0.463854 -0.149693 0.446833 -0.526776 0.348363 -0.327013 0.114793 -0.292925 -0.479647 0.941672 -0.654591 -0.817425 0.327768 0.0294028 -0.0359013 0.247546 -0.533581 0.806333 0.683097 -0.075038 -0.342906 -0.270491 -0.0595943 -0.254424 0.00808476 0.78559 -0.693307 -0.133496 0.0897175 -0.289714 -0.28484 0.212594 -0.362522 0.491284 0.94033 -0.757749 -0.363644 0.48729 -0.637623 -0.220508 1.07104 -0.0876604 -0.541309 0.0659482 -0.167497 -0.619185 0.077589 -0.0997963 1.14476 0.0656084 -0.508913 -0.0260369 0.375221 -0.569441 0.015045 -0.788272 -1.15306 -0.420619 0.379451 -0.440539 1.04829 0.131283 -0.180271 0.557126 0.0442435 0.468388 -0.142119 -0.441105 -0.122344 0.0589419 -0.140526 -0.124046 0.782338 -0.976947 0.277619 -0.0138877 0.840581 -1.4034 -0.168665 0.174378 0.530792 0.0300172 1.01461 -0.57812 -0.176577 0.322763 0.305484 -1.65886 1.22779 -0.677414 -0.103521 0.525461 0.275375 -0.195337 -0.245639 -0.462685 -0.0419156 0.101364 -0.84882 0.137728 0.211205 0.163365 0.0972357 0.146229 -0.197274 -0.455023 -0.107377 -0.295732 -0.457503 0.238056 0.961975 0.53633 -0.363788 0.385089 0.469496 -0.10194 -0.740119 -0.0963141 -0.0857849 0.298489 0.189404 0.737794 0.311689 0.0856101 -0.515674 -0.891164 0.126551 -0.485207 0.253773 -0.703784 0.644739 -0.984728 0.0159616 -1.28469 0.595176 0.561707 -0.190263 0.542841 -0.28347 -0.383721 0.610142 0.143534 -0.043895 -0.589614 -0.62226 -0.848344 -0.0571546 -0.55902 1.12306 0.705174 0.21152 -0.0146521 0.2921 -0.21794 0.358465 -0.853388 -0.166252 0.0990384 0.380332 -0.168172 -0.577489 -0.898379 0.581436 0.969086 0.122337 -0.996507 -0.153713 -0.934691 -0.485735 0.29747 -0.504155 -0.00154072 -0.693793 -0.153493 0.252657 0.255737 -0.031334 0.138103 0.466377 0.211171 -0.0173309 -0.394783 -0.851921 0.139522 -0.360107 0.0306597 0.238466 -0.235816 -0.210846 0.0704369 -0.398391 0.0395039 -0.0934288 -0.833898 1.38563 0.442594 0.0683101 -0.110344 -0.0351406 0.143231 -0.116929 0.0956551 -0.998995 0.542572 -0.401186 -0.612597 0.283485 0.608328 -0.360079 0.0259462 0.239198 -0.232963 -0.205136 0.074105 -0.399539 0.0412526 0.25517 0.134889 0.0450564 -0.42438 -0.440804 -0.250881 0.640433 0.0573414 0.245317 -0.135985 -0.0578732 -0.0257272 0.00747235 -0.253859 -0.23851 -0.166874 -0.644939 0.306523 0.0287457 0.165925 0.580544 -0.0469083 -0.0140617 -0.238429 -0.69909 0.991966 0.591968 0.819891 -0.319883 -0.513963 -0.125675 0.648685 0.940762 -0.782974 1.26482 -0.960699 -0.0327263 -0.374379 0.104749 -0.715724 0.192285 0.841546 -0.483423 -0.733054 -0.193795 -0.641904 0.391012 0.190085 -0.613831 0.383128 0.159608 0.490759 -0.634109 -0.0776109 -0.365002 0.497701 -0.242108 -0.407653 -0.399018 0.805918 -0.413988 -0.590868 -0.349024 1.18511 -0.220338 0.0807448 -0.477244 0.750711 0.74217 0.221086 0.000887776 -1.53838 -0.266308 0.921193 0.73775 1.09389 -0.676343 -0.6343 -1.13537 0.214499 -0.254375 0.172245 -0.510683 0.558706 0.740339 0.726191 -0.549474 -0.0652429 -0.191947 1.03059 -0.330461 0.244804 -0.541292 -0.370947 -1.15138 0.506891 -0.0339655 -0.267481 0.0101954 -0.705464 1.05439 -0.301223 0.335575 0.151158 -0.853457 -1.41545 0.253509 -0.846893 0.33918 0.153865 0.867299 1.39273 0.141774 -0.34599 -0.529881 0.141338 -0.253244 0.214368 -0.369091 0.789875 0.349496 -1.20057 -0.456457 -0.535002 -0.444878 1.03871 0.42775 0.358475 0.250418 -0.138599 -0.481534 -0.0252385 0.191287 0.29645 -0.659485 0.314959 